<?xml version="1.0"?>
<opencv_storage>
<cascade>
  <stageType>BOOST</stageType>
  <featureType>HAAR</featureType>
  <height>46</height>
  <width>38</width>
  <stageParams>
    <boostType>GAB</boostType>
    <minHitRate>9.9500000476837158e-01</minHitRate>
    <maxFalseAlarm>5.0000000000000000e-01</maxFalseAlarm>
    <weightTrimRate>9.4999998807907104e-01</weightTrimRate>
    <maxDepth>1</maxDepth>
    <maxWeakCount>100</maxWeakCount></stageParams>
  <featureParams>
    <maxCatCount>0</maxCatCount>
    <featSize>1</featSize>
    <mode>BASIC</mode></featureParams>
  <stageNum>4</stageNum>
  <stages>
    <!-- stage 0 -->
    <_>
      <maxWeakCount>4</maxWeakCount>
      <stageThreshold>-5.1588732004165649e-01</stageThreshold>
      <weakClassifiers>
        <_>
          <internalNodes>
            0 -1 12 7.2502889670431614e-03</internalNodes>
          <leafValues>
            -7.5177305936813354e-01 5.1376146078109741e-01</leafValues></_>
        <_>
          <internalNodes>
            0 -1 1 2.4353628978133202e-02</internalNodes>
          <leafValues>
            -5.8855205774307251e-01 6.2797188758850098e-01</leafValues></_>
        <_>
          <internalNodes>
            0 -1 13 3.4010075032711029e-03</internalNodes>
          <leafValues>
            -5.3599798679351807e-01 5.1441621780395508e-01</leafValues></_>
        <_>
          <internalNodes>
            0 -1 5 -1.5661247074604034e-02</internalNodes>
          <leafValues>
            3.1002157926559448e-01 -8.3716863393783569e-01</leafValues></_></weakClassifiers></_>
    <!-- stage 1 -->
    <_>
      <maxWeakCount>5</maxWeakCount>
      <stageThreshold>-5.2845406532287598e-01</stageThreshold>
      <weakClassifiers>
        <_>
          <internalNodes>
            0 -1 3 1.0557799600064754e-02</internalNodes>
          <leafValues>
            -5.7714283466339111e-01 6.8000000715255737e-01</leafValues></_>
        <_>
          <internalNodes>
            0 -1 7 -8.4786154329776764e-03</internalNodes>
          <leafValues>
            8.5126340389251709e-01 -4.1410931944847107e-01</leafValues></_>
        <_>
          <internalNodes>
            0 -1 10 2.5770282372832298e-02</internalNodes>
          <leafValues>
            -4.2871549725532532e-01 7.3100858926773071e-01</leafValues></_>
        <_>
          <internalNodes>
            0 -1 6 -4.3742647394537926e-03</internalNodes>
          <leafValues>
            -6.6578918695449829e-01 4.9253267049789429e-01</leafValues></_>
        <_>
          <internalNodes>
            0 -1 4 -9.2423346359282732e-04</internalNodes>
          <leafValues>
            -7.3556798696517944e-01 3.9898094534873962e-01</leafValues></_></weakClassifiers></_>
    <!-- stage 2 -->
    <_>
      <maxWeakCount>5</maxWeakCount>
      <stageThreshold>-4.8552513122558594e-01</stageThreshold>
      <weakClassifiers>
        <_>
          <internalNodes>
            0 -1 2 2.5827661156654358e-03</internalNodes>
          <leafValues>
            -6.4204543828964233e-01 8.5135138034820557e-01</leafValues></_>
        <_>
          <internalNodes>
            0 -1 9 -6.8645393475890160e-03</internalNodes>
          <leafValues>
            8.3481037616729736e-01 -5.4036837816238403e-01</leafValues></_>
        <_>
          <internalNodes>
            0 -1 8 6.8521383218467236e-04</internalNodes>
          <leafValues>
            7.4641311168670654e-01 -6.2200313806533813e-01</leafValues></_>
        <_>
          <internalNodes>
            0 -1 11 3.4299853723496199e-03</internalNodes>
          <leafValues>
            5.0968950986862183e-01 -9.3857765197753906e-01</leafValues></_>
        <_>
          <internalNodes>
            0 -1 14 -1.1229595111217350e-04</internalNodes>
          <leafValues>
            1. -4.8612549901008606e-01</leafValues></_></weakClassifiers></_>
    <!-- stage 3 -->
    <_>
      <maxWeakCount>1</maxWeakCount>
      <stageThreshold>1.</stageThreshold>
      <weakClassifiers>
        <_>
          <internalNodes>
            0 -1 0 -1.1540045961737633e-02</internalNodes>
          <leafValues>
            -1. 1.</leafValues></_></weakClassifiers></_></stages>
  <features>
    <_>
      <rects>
        <_>
          0 0 3 12 -1.</_>
        <_>
          0 4 3 4 3.</_></rects>
      <tilted>0</tilted></_>
    <_>
      <rects>
        <_>
          0 2 15 17 -1.</_>
        <_>
          5 2 5 17 3.</_></rects>
      <tilted>0</tilted></_>
    <_>
      <rects>
        <_>
          0 9 12 9 -1.</_>
        <_>
          4 9 4 9 3.</_></rects>
      <tilted>0</tilted></_>
    <_>
      <rects>
        <_>
          0 18 9 15 -1.</_>
        <_>
          3 18 3 15 3.</_></rects>
      <tilted>0</tilted></_>
    <_>
      <rects>
        <_>
          1 1 16 2 -1.</_>
        <_>
          9 1 8 2 2.</_></rects>
      <tilted>0</tilted></_>
    <_>
      <rects>
        <_>
          4 4 9 34 -1.</_>
        <_>
          4 21 9 17 2.</_></rects>
      <tilted>0</tilted></_>
    <_>
      <rects>
        <_>
          4 14 23 15 -1.</_>
        <_>
          4 19 23 5 3.</_></rects>
      <tilted>0</tilted></_>
    <_>
      <rects>
        <_>
          6 40 19 6 -1.</_>
        <_>
          6 43 19 3 2.</_></rects>
      <tilted>0</tilted></_>
    <_>
      <rects>
        <_>
          7 34 6 12 -1.</_>
        <_>
          9 34 2 12 3.</_></rects>
      <tilted>0</tilted></_>
    <_>
      <rects>
        <_>
          8 6 21 33 -1.</_>
        <_>
          15 6 7 33 3.</_></rects>
      <tilted>0</tilted></_>
    <_>
      <rects>
        <_>
          15 0 22 6 -1.</_>
        <_>
          15 3 22 3 2.</_></rects>
      <tilted>0</tilted></_>
    <_>
      <rects>
        <_>
          18 39 10 3 -1.</_>
        <_>
          23 39 5 3 2.</_></rects>
      <tilted>0</tilted></_>
    <_>
      <rects>
        <_>
          21 0 11 6 -1.</_>
        <_>
          21 3 11 3 2.</_></rects>
      <tilted>0</tilted></_>
    <_>
      <rects>
        <_>
          28 13 9 12 -1.</_>
        <_>
          31 13 3 12 3.</_></rects>
      <tilted>0</tilted></_>
    <_>
      <rects>
        <_>
          31 23 3 4 -1.</_>
        <_>
          32 23 1 4 3.</_></rects>
      <tilted>0</tilted></_></features></cascade>
</opencv_storage>
