<?xml version="1.0"?>
<opencv_storage>
<stage1>
  <maxWeakCount>5</maxWeakCount>
  <stageThreshold>-5.2845406532287598e-01</stageThreshold>
  <weakClassifiers>
    <_>
      <internalNodes>
        0 -1 48480 1.0557799600064754e-02</internalNodes>
      <leafValues>
        -5.7714283466339111e-01 6.8000000715255737e-01</leafValues></_>
    <_>
      <internalNodes>
        0 -1 493499 -8.4786154329776764e-03</internalNodes>
      <leafValues>
        8.5126340389251709e-01 -4.1410931944847107e-01</leafValues></_>
    <_>
      <internalNodes>
        0 -1 939133 2.5770282372832298e-02</internalNodes>
      <leafValues>
        -4.2871549725532532e-01 7.3100858926773071e-01</leafValues></_>
    <_>
      <internalNodes>
        0 -1 331607 -4.3742647394537926e-03</internalNodes>
      <leafValues>
        -6.6578918695449829e-01 4.9253267049789429e-01</leafValues></_>
    <_>
      <internalNodes>
        0 -1 81022 -9.2423346359282732e-04</internalNodes>
      <leafValues>
        -7.3556798696517944e-01 3.9898094534873962e-01</leafValues></_></weakClassifiers></stage1>
</opencv_storage>
